<?xml version="1.0"?>
<opencv_storage>
<cascade>
  <stageType>BOOST</stageType>
  <featureType>HAAR</featureType>
  <height>36</height>
  <width>72</width>
  <stageParams>
    <boostType>GAB</boostType>
    <minHitRate>9.9500000476837158e-01</minHitRate>
    <maxFalseAlarm>5.0000000000000000e-01</maxFalseAlarm>
    <weightTrimRate>9.4999999999999996e-01</weightTrimRate>
    <maxDepth>1</maxDepth>
    <maxWeakCount>100</maxWeakCount></stageParams>
  <featureParams>
    <maxCatCount>0</maxCatCount>
    <featSize>1</featSize>
    <mode>BASIC</mode></featureParams>
  <stageNum>5</stageNum>
  <stages>
    <!-- stage 0 -->
    <_>
      <maxWeakCount>2</maxWeakCount>
      <stageThreshold>7.2613090276718140e-02</stageThreshold>
      <weakClassifiers>
        <_>
          <internalNodes>
            0 -1 2 -2.9921775683760643e-02</internalNodes>
          <leafValues>
            9.2857140302658081e-01 -8.8235294818878174e-01</leafValues></_>
        <_>
          <internalNodes>
            0 -1 3 -7.6456457376480103e-02</internalNodes>
          <leafValues>
            9.5496600866317749e-01 -8.4691047668457031e-01</leafValues></_></weakClassifiers></_>
    <!-- stage 1 -->
    <_>
      <maxWeakCount>2</maxWeakCount>
      <stageThreshold>-1.4861615002155304e-01</stageThreshold>
      <weakClassifiers>
        <_>
          <internalNodes>
            0 -1 7 3.1428153160959482e-03</internalNodes>
          <leafValues>
            -8.7301588058471680e-01 6.3636362552642822e-01</leafValues></_>
        <_>
          <internalNodes>
            0 -1 6 -9.3545624986290932e-04</internalNodes>
          <leafValues>
            9.1836780309677124e-01 -7.8497976064682007e-01</leafValues></_></weakClassifiers></_>
    <!-- stage 2 -->
    <_>
      <maxWeakCount>2</maxWeakCount>
      <stageThreshold>-9.1195069253444672e-02</stageThreshold>
      <weakClassifiers>
        <_>
          <internalNodes>
            0 -1 10 -4.7753388062119484e-03</internalNodes>
          <leafValues>
            8.4615385532379150e-01 -8.0000001192092896e-01</leafValues></_>
        <_>
          <internalNodes>
            0 -1 1 -1.4912833459675312e-02</internalNodes>
          <leafValues>
            7.0880490541458130e-01 -8.6190652847290039e-01</leafValues></_></weakClassifiers></_>
    <!-- stage 3 -->
    <_>
      <maxWeakCount>3</maxWeakCount>
      <stageThreshold>-7.9970329999923706e-01</stageThreshold>
      <weakClassifiers>
        <_>
          <internalNodes>
            0 -1 4 -3.0472200363874435e-02</internalNodes>
          <leafValues>
            -7.7464789152145386e-01 8.3999997377395630e-01</leafValues></_>
        <_>
          <internalNodes>
            0 -1 8 -1.2356813531368971e-03</internalNodes>
          <leafValues>
            8.4871870279312134e-01 -7.3977142572402954e-01</leafValues></_>
        <_>
          <internalNodes>
            0 -1 9 1.2426191824488342e-04</internalNodes>
          <leafValues>
            -8.7348383665084839e-01 7.1471601724624634e-01</leafValues></_></weakClassifiers></_>
    <!-- stage 4 -->
    <_>
      <maxWeakCount>2</maxWeakCount>
      <stageThreshold>-6.0411132872104645e-02</stageThreshold>
      <weakClassifiers>
        <_>
          <internalNodes>
            0 -1 5 -4.5464369468390942e-03</internalNodes>
          <leafValues>
            7.7777779102325439e-01 -7.9710143804550171e-01</leafValues></_>
        <_>
          <internalNodes>
            0 -1 0 2.1938723511993885e-03</internalNodes>
          <leafValues>
            -8.3818888664245605e-01 7.6597249507904053e-01</leafValues></_></weakClassifiers></_></stages>
  <features>
    <_>
      <rects>
        <_>
          0 27 8 5 -1.</_>
        <_>
          4 27 4 5 2.</_></rects>
      <tilted>0</tilted></_>
    <_>
      <rects>
        <_>
          5 31 61 4 -1.</_>
        <_>
          5 33 61 2 2.</_></rects>
      <tilted>0</tilted></_>
    <_>
      <rects>
        <_>
          10 30 58 6 -1.</_>
        <_>
          10 33 58 3 2.</_></rects>
      <tilted>0</tilted></_>
    <_>
      <rects>
        <_>
          26 19 18 12 -1.</_>
        <_>
          26 23 18 4 2.</_></rects>
      <tilted>0</tilted></_>
    <_>
      <rects>
        <_>
          29 24 11 12 -1.</_>
        <_>
          29 28 11 4 2.</_></rects>
      <tilted>0</tilted></_>
    <_>
      <rects>
        <_>
          32 7 4 18 -1.</_>
        <_>
          34 7 2 18 2.</_></rects>
      <tilted>0</tilted></_>
    <_>
      <rects>
        <_>
          32 24 4 3 -1.</_>
        <_>
          34 24 2 3 2.</_></rects>
      <tilted>0</tilted></_>
    <_>
      <rects>
        <_>
          40 24 6 6 -1.</_>
        <_>
          40 27 6 3 2.</_></rects>
      <tilted>0</tilted></_>
    <_>
      <rects>
        <_>
          51 9 2 16 -1.</_>
        <_>
          52 9 1 16 2.</_></rects>
      <tilted>0</tilted></_>
    <_>
      <rects>
        <_>
          60 2 9 2 -1.</_>
        <_>
          60 3 9 1 2.</_></rects>
      <tilted>0</tilted></_>
    <_>
      <rects>
        <_>
          63 14 6 20 -1.</_>
        <_>
          63 14 3 10 2.</_>
        <_>
          66 24 3 10 2.</_></rects>
      <tilted>0</tilted></_></features></cascade>
</opencv_storage>
